FANN_FLO_2.1
num_layers=4
learning_rate=0.700000
connection_rate=1.000000
network_type=0
learning_momentum=0.000000
training_algorithm=2
train_error_function=1
train_stop_function=0
cascade_output_change_fraction=0.010000
quickprop_decay=-0.000100
quickprop_mu=1.750000
rprop_increase_factor=1.200000
rprop_decrease_factor=0.500000
rprop_delta_min=0.000000
rprop_delta_max=50.000000
rprop_delta_zero=0.100000
cascade_output_stagnation_epochs=12
cascade_candidate_change_fraction=0.010000
cascade_candidate_stagnation_epochs=12
cascade_max_out_epochs=150
cascade_min_out_epochs=50
cascade_max_cand_epochs=150
cascade_min_cand_epochs=50
cascade_num_candidate_groups=2
bit_fail_limit=3.49999994039535522461e-01
cascade_candidate_limit=1.00000000000000000000e+03
cascade_weight_multiplier=4.00000005960464477539e-01
cascade_activation_functions_count=10
cascade_activation_functions=3 5 7 8 10 11 14 15 16 17 
cascade_activation_steepnesses_count=4
cascade_activation_steepnesses=2.50000000000000000000e-01 5.00000000000000000000e-01 7.50000000000000000000e-01 1.00000000000000000000e+00 
layer_sizes=3 9 10 2 
scale_included=0
neurons (num_inputs, activation_function, activation_steepness)=(0, 0, 0.00000000000000000000e+00) (0, 0, 0.00000000000000000000e+00) (0, 0, 0.00000000000000000000e+00) (3, 3, 5.00000000000000000000e-01) (3, 3, 5.00000000000000000000e-01) (3, 3, 5.00000000000000000000e-01) (3, 3, 5.00000000000000000000e-01) (3, 3, 5.00000000000000000000e-01) (3, 3, 5.00000000000000000000e-01) (3, 3, 5.00000000000000000000e-01) (3, 3, 5.00000000000000000000e-01) (0, 3, 0.00000000000000000000e+00) (9, 3, 5.00000000000000000000e-01) (9, 3, 5.00000000000000000000e-01) (9, 3, 5.00000000000000000000e-01) (9, 3, 5.00000000000000000000e-01) (9, 3, 5.00000000000000000000e-01) (9, 3, 5.00000000000000000000e-01) (9, 3, 5.00000000000000000000e-01) (9, 3, 5.00000000000000000000e-01) (9, 3, 5.00000000000000000000e-01) (0, 3, 0.00000000000000000000e+00) (10, 3, 5.00000000000000000000e-01) (0, 3, 0.00000000000000000000e+00) 
connections (connected_to_neuron, weight)=(0, 1.50000000000000000000e+03) (1, -1.49999975585937500000e+03) (2, -1.35629785156250000000e+03) (0, 7.07549591064453125000e+01) (1, -4.55524749755859375000e+02) (2, 3.50483856201171875000e+02) (0, 1.50000000000000000000e+03) (1, -1.49999975585937500000e+03) (2, -5.71107727050781250000e+02) (0, 9.74223327636718750000e+02) (1, -1.49999963378906250000e+03) (2, 5.72690010070800781250e+01) (0, -1.47614331054687500000e+03) (1, 1.49999987792968750000e+03) (2, 1.31487561035156250000e+03) (0, 2.52117431640625000000e+02) (1, 1.85576446533203125000e+02) (2, -3.85327728271484375000e+02) (0, -7.87093688964843750000e+02) (1, 1.56530790328979492188e+01) (2, 7.00473693847656250000e+02) (0, 9.74223327636718750000e+02) (1, -1.49999963378906250000e+03) (2, 5.72690010070800781250e+01) (3, 1.50000000000000000000e+03) (4, -4.19454864501953125000e+02) (5, 1.50000000000000000000e+03) (6, 1.08417114257812500000e+03) (7, -7.47244873046875000000e+02) (8, 1.15239404296875000000e+03) (9, -5.26731262207031250000e+02) (10, 1.08417114257812500000e+03) (11, 1.32839288711547851562e+01) (3, 1.50000000000000000000e+03) (4, 1.45340100097656250000e+03) (5, 1.50000000000000000000e+03) (6, 1.50000000000000000000e+03) (7, 6.16697082519531250000e+02) (8, -1.37300805664062500000e+03) (9, 1.43438171386718750000e+02) (10, 1.50000000000000000000e+03) (11, 9.87792724609375000000e+02) (3, 1.50000000000000000000e+03) (4, -2.11367523193359375000e+02) (5, 1.50000000000000000000e+03) (6, 1.08417114257812500000e+03) (7, -7.77247192382812500000e+02) (8, 1.15703186035156250000e+03) (9, -7.21499389648437500000e+02) (10, 1.08417114257812500000e+03) (11, -3.12317428588867187500e+01) (3, 1.50000000000000000000e+03) (4, 1.29092590332031250000e+03) (5, 1.50000000000000000000e+03) (6, 1.50000000000000000000e+03) (7, 1.12574255371093750000e+03) (8, -9.98071899414062500000e+02) (9, 1.43438171386718750000e+02) (10, 1.50000000000000000000e+03) (11, 7.67448425292968750000e+01) (3, 1.50000000000000000000e+03) (4, 8.61842224121093750000e+02) (5, 1.50000000000000000000e+03) (6, 1.08417114257812500000e+03) (7, -6.95531738281250000000e+02) (8, -1.41032043457031250000e+03) (9, 6.68045471191406250000e+02) (10, 1.08417114257812500000e+03) (11, 3.39568023681640625000e+01) (3, 1.50000000000000000000e+03) (4, 1.02973669433593750000e+03) (5, 1.50000000000000000000e+03) (6, 1.08417114257812500000e+03) (7, -6.15560436248779296875e+00) (8, -1.39981506347656250000e+03) (9, 6.68045471191406250000e+02) (10, 1.08417114257812500000e+03) (11, 3.75977264404296875000e+02) (3, 1.50000000000000000000e+03) (4, 1.29092590332031250000e+03) (5, 1.50000000000000000000e+03) (6, 1.50000000000000000000e+03) (7, 1.14356079101562500000e+03) (8, -9.98071899414062500000e+02) (9, 1.43438171386718750000e+02) (10, 1.50000000000000000000e+03) (11, 9.35921401977539062500e+01) (3, 1.50000000000000000000e+03) (4, 1.29092590332031250000e+03) (5, 1.50000000000000000000e+03) (6, 1.50000000000000000000e+03) (7, 1.14819616699218750000e+03) (8, -9.98071899414062500000e+02) (9, 1.43438171386718750000e+02) (10, 1.50000000000000000000e+03) (11, 9.80833892822265625000e+01) (3, 1.50000000000000000000e+03) (4, -1.29427734375000000000e+03) (5, 1.50000000000000000000e+03) (6, 1.08417114257812500000e+03) (7, -1.47415112304687500000e+03) (8, 1.15183618164062500000e+03) (9, 6.79997497558593750000e+02) (10, 1.08417114257812500000e+03) (11, -6.53812599182128906250e+00) (12, 4.55494403839111328125e+00) (13, -1.49537572860717773438e+01) (14, 1.06091529846191406250e+02) (15, -1.79985332489013671875e+01) (16, 1.01477928161621093750e+02) (17, 6.87440252304077148438e+00) (18, -2.45146713256835937500e+01) (19, -1.91942729949951171875e+01) (20, 1.12031501770019531250e+02) (21, -3.50992813110351562500e+01) 
