FANN_FLO_2.1
num_layers=5
learning_rate=0.700000
connection_rate=1.000000
network_type=0
learning_momentum=0.000000
training_algorithm=2
train_error_function=1
train_stop_function=0
cascade_output_change_fraction=0.010000
quickprop_decay=-0.000100
quickprop_mu=1.750000
rprop_increase_factor=1.200000
rprop_decrease_factor=0.500000
rprop_delta_min=0.000000
rprop_delta_max=50.000000
rprop_delta_zero=0.100000
cascade_output_stagnation_epochs=12
cascade_candidate_change_fraction=0.010000
cascade_candidate_stagnation_epochs=12
cascade_max_out_epochs=150
cascade_min_out_epochs=50
cascade_max_cand_epochs=150
cascade_min_cand_epochs=50
cascade_num_candidate_groups=2
bit_fail_limit=3.49999994039535522461e-01
cascade_candidate_limit=1.00000000000000000000e+03
cascade_weight_multiplier=4.00000005960464477539e-01
cascade_activation_functions_count=10
cascade_activation_functions=3 5 7 8 10 11 14 15 16 17 
cascade_activation_steepnesses_count=4
cascade_activation_steepnesses=2.50000000000000000000e-01 5.00000000000000000000e-01 7.50000000000000000000e-01 1.00000000000000000000e+00 
layer_sizes=3 10 10 10 2 
scale_included=0
neurons (num_inputs, activation_function, activation_steepness)=(0, 0, 0.00000000000000000000e+00) (0, 0, 0.00000000000000000000e+00) (0, 0, 0.00000000000000000000e+00) (3, 3, 5.00000000000000000000e-01) (3, 3, 5.00000000000000000000e-01) (3, 3, 5.00000000000000000000e-01) (3, 3, 5.00000000000000000000e-01) (3, 3, 5.00000000000000000000e-01) (3, 3, 5.00000000000000000000e-01) (3, 3, 5.00000000000000000000e-01) (3, 3, 5.00000000000000000000e-01) (3, 3, 5.00000000000000000000e-01) (0, 3, 0.00000000000000000000e+00) (10, 3, 5.00000000000000000000e-01) (10, 3, 5.00000000000000000000e-01) (10, 3, 5.00000000000000000000e-01) (10, 3, 5.00000000000000000000e-01) (10, 3, 5.00000000000000000000e-01) (10, 3, 5.00000000000000000000e-01) (10, 3, 5.00000000000000000000e-01) (10, 3, 5.00000000000000000000e-01) (10, 3, 5.00000000000000000000e-01) (0, 3, 0.00000000000000000000e+00) (10, 3, 5.00000000000000000000e-01) (10, 3, 5.00000000000000000000e-01) (10, 3, 5.00000000000000000000e-01) (10, 3, 5.00000000000000000000e-01) (10, 3, 5.00000000000000000000e-01) (10, 3, 5.00000000000000000000e-01) (10, 3, 5.00000000000000000000e-01) (10, 3, 5.00000000000000000000e-01) (10, 3, 5.00000000000000000000e-01) (0, 3, 0.00000000000000000000e+00) (10, 3, 5.00000000000000000000e-01) (0, 3, 0.00000000000000000000e+00) 
connections (connected_to_neuron, weight)=(0, 1.50000000000000000000e+03) (1, 1.50000000000000000000e+03) (2, 4.56408843994140625000e+01) (0, 1.50000000000000000000e+03) (1, 1.50000000000000000000e+03) (2, 3.89693984985351562500e+01) (0, 1.50000000000000000000e+03) (1, 1.50000000000000000000e+03) (2, 2.83395290374755859375e+01) (0, 1.50000000000000000000e+03) (1, 1.50000000000000000000e+03) (2, 2.30459384918212890625e+01) (0, 1.50000000000000000000e+03) (1, 1.50000000000000000000e+03) (2, 4.53616561889648437500e+01) (0, 1.50000000000000000000e+03) (1, 1.50000000000000000000e+03) (2, 2.69615955352783203125e+01) (0, 1.50000000000000000000e+03) (1, 1.50000000000000000000e+03) (2, 1.69810390472412109375e+01) (0, 1.50000000000000000000e+03) (1, 1.50000000000000000000e+03) (2, 5.44101982116699218750e+01) (0, 1.50000000000000000000e+03) (1, 1.50000000000000000000e+03) (2, 5.73500633239746093750e+01) (3, 1.49999987792968750000e+03) (4, 1.19710534667968750000e+03) (5, 9.16949707031250000000e+02) (6, 1.49999987792968750000e+03) (7, 1.09055639648437500000e+03) (8, 3.76329460144042968750e+01) (9, 1.49999987792968750000e+03) (10, 9.98543334960937500000e+02) (11, 1.35114538574218750000e+03) (12, -1.15119242668151855469e+00) (3, 1.49999987792968750000e+03) (4, 1.22295678710937500000e+03) (5, 1.18016589355468750000e+03) (6, 1.49999987792968750000e+03) (7, 1.11692163085937500000e+03) (8, 1.43924423217773437500e+02) (9, 8.63776855468750000000e+02) (10, 7.77864257812500000000e+02) (11, 1.37773205566406250000e+03) (12, 2.52206192016601562500e+01) (3, 1.49999987792968750000e+03) (4, 1.22461206054687500000e+03) (5, 1.18179187011718750000e+03) (6, 1.49999987792968750000e+03) (7, 1.11778930664062500000e+03) (8, 7.33286666870117187500e+01) (9, 1.49999987792968750000e+03) (10, 1.49999987792968750000e+03) (11, 1.37910009765625000000e+03) (12, 2.67799358367919921875e+01) (3, 1.49999987792968750000e+03) (4, 1.19855773925781250000e+03) (5, 1.15352404785156250000e+03) (6, 1.49999987792968750000e+03) (7, 1.09212622070312500000e+03) (8, 3.13142704963684082031e+00) (9, 1.49999987792968750000e+03) (10, 8.61636108398437500000e+02) (11, 1.35356872558593750000e+03) (12, 1.36221754550933837891e+00) (3, 1.49999987792968750000e+03) (4, 1.21419165039062500000e+03) (5, 1.16993664550781250000e+03) (6, 1.49999987792968750000e+03) (7, 1.10859313964843750000e+03) (8, 4.24941778182983398438e+00) (9, 9.23193664550781250000e+02) (10, 1.49999987792968750000e+03) (11, 1.10476159667968750000e+03) (12, 1.64008674621582031250e+01) (3, 5.46666076660156250000e+02) (4, 8.10389282226562500000e+02) (5, 8.24780822753906250000e+02) (6, 1.49999987792968750000e+03) (7, 1.03035839843750000000e+03) (8, 2.08392162322998046875e+01) (9, 1.49999987792968750000e+03) (10, 1.49999987792968750000e+03) (11, 1.06655578613281250000e+03) (12, 3.57496910095214843750e+01) (3, 1.49999987792968750000e+03) (4, 1.20952783203125000000e+03) (5, 1.16508288574218750000e+03) (6, 1.49999987792968750000e+03) (7, 1.10613244628906250000e+03) (8, 1.80883846282958984375e+01) (9, 4.24935394287109375000e+02) (10, 3.36668334960937500000e+02) (11, 1.36546435546875000000e+03) (12, 1.24738426208496093750e+01) (3, 1.49999987792968750000e+03) (4, 9.32503295898437500000e+02) (5, 1.17074487304687500000e+03) (6, 1.49999987792968750000e+03) (7, 1.11185571289062500000e+03) (8, 1.23692178726196289062e+01) (9, 9.23193664550781250000e+02) (10, 1.49999987792968750000e+03) (11, 1.37272839355468750000e+03) (12, 1.67674579620361328125e+01) (3, 1.49999987792968750000e+03) (4, 1.19705004882812500000e+03) (5, 9.17969726562500000000e+02) (6, 1.49999987792968750000e+03) (7, 1.09916210937500000000e+03) (8, -7.56238639354705810547e-01) (9, 1.49999987792968750000e+03) (10, 1.12557421875000000000e+03) (11, 1.35245544433593750000e+03) (12, -1.63835513591766357422e+00) (13, 1.30055187988281250000e+03) (14, 1.44922790527343750000e+03) (15, -1.85830261230468750000e+02) (16, 1.20975183105468750000e+03) (17, 1.47505480957031250000e+03) (18, 1.30055187988281250000e+03) (19, 1.44922790527343750000e+03) (20, 1.47505480957031250000e+03) (21, 1.30055187988281250000e+03) (22, -3.61139464378356933594e+00) (13, 1.49999987792968750000e+03) (14, 1.49999987792968750000e+03) (15, 7.77232421875000000000e+02) (16, 1.49999987792968750000e+03) (17, 1.49999987792968750000e+03) (18, 1.49999987792968750000e+03) (19, 1.49999987792968750000e+03) (20, 1.49999987792968750000e+03) (21, 1.49999987792968750000e+03) (22, -4.20747852325439453125e+00) (13, 1.30055187988281250000e+03) (14, 1.44922790527343750000e+03) (15, 6.43544464111328125000e+01) (16, 1.20975183105468750000e+03) (17, 1.47505480957031250000e+03) (18, 1.30055187988281250000e+03) (19, 1.44922790527343750000e+03) (20, 1.47505480957031250000e+03) (21, 1.30055187988281250000e+03) (22, -5.27828502655029296875e+00) (13, 1.30055187988281250000e+03) (14, 1.44922790527343750000e+03) (15, 1.47486938476562500000e+03) (16, 1.20975183105468750000e+03) (17, 1.47505480957031250000e+03) (18, 1.30055187988281250000e+03) (19, 1.44922790527343750000e+03) (20, 1.47505480957031250000e+03) (21, 1.30055187988281250000e+03) (22, -5.83328580856323242188e+00) (13, 1.49999987792968750000e+03) (14, 1.49999987792968750000e+03) (15, 2.36745483398437500000e+02) (16, 1.49999987792968750000e+03) (17, 1.49999987792968750000e+03) (18, 1.49999987792968750000e+03) (19, 1.49999987792968750000e+03) (20, 1.49999987792968750000e+03) (21, 1.49999987792968750000e+03) (22, 2.80195665359497070312e+00) (13, 1.49999987792968750000e+03) (14, 1.49999987792968750000e+03) (15, -3.23311500549316406250e+01) (16, 1.49999987792968750000e+03) (17, 1.49999987792968750000e+03) (18, 1.49999987792968750000e+03) (19, 1.49999987792968750000e+03) (20, 1.49999987792968750000e+03) (21, 1.49999987792968750000e+03) (22, 2.68225860595703125000e+01) (13, 1.49999987792968750000e+03) (14, 1.49999987792968750000e+03) (15, 2.55872230529785156250e+01) (16, 1.49999987792968750000e+03) (17, 1.49999987792968750000e+03) (18, 1.49999987792968750000e+03) (19, 1.49999987792968750000e+03) (20, 1.49999987792968750000e+03) (21, 1.49999987792968750000e+03) (22, 1.47900896072387695312e+01) (13, 1.30055187988281250000e+03) (14, 1.44922790527343750000e+03) (15, 9.67398223876953125000e+01) (16, 1.20975183105468750000e+03) (17, 1.47505480957031250000e+03) (18, 1.30055187988281250000e+03) (19, 1.44922790527343750000e+03) (20, 1.47505480957031250000e+03) (21, 1.30055187988281250000e+03) (22, -2.25451946258544921875e+01) (13, 1.30055187988281250000e+03) (14, 1.44922790527343750000e+03) (15, 6.46239929199218750000e+01) (16, 1.20975183105468750000e+03) (17, 1.47505480957031250000e+03) (18, 1.30055187988281250000e+03) (19, 1.44922790527343750000e+03) (20, 1.47505480957031250000e+03) (21, 1.30055187988281250000e+03) (22, -4.11705207824707031250e+00) (23, 1.48165576171875000000e+03) (24, -5.73887214660644531250e+01) (25, 1.77872802734375000000e+02) (26, 2.98771076202392578125e+01) (27, -6.76505065917968750000e+02) (28, -1.46994519042968750000e+03) (29, -1.65289878845214843750e+01) (30, 3.09881134033203125000e+02) (31, 1.92784408569335937500e+02) (32, 2.71398410797119140625e+01) 
