FANN_FLO_2.1
num_layers=5
learning_rate=0.700000
connection_rate=1.000000
network_type=0
learning_momentum=0.000000
training_algorithm=2
train_error_function=1
train_stop_function=0
cascade_output_change_fraction=0.010000
quickprop_decay=-0.000100
quickprop_mu=1.750000
rprop_increase_factor=1.200000
rprop_decrease_factor=0.500000
rprop_delta_min=0.000000
rprop_delta_max=50.000000
rprop_delta_zero=0.100000
cascade_output_stagnation_epochs=12
cascade_candidate_change_fraction=0.010000
cascade_candidate_stagnation_epochs=12
cascade_max_out_epochs=150
cascade_min_out_epochs=50
cascade_max_cand_epochs=150
cascade_min_cand_epochs=50
cascade_num_candidate_groups=2
bit_fail_limit=3.49999994039535522461e-01
cascade_candidate_limit=1.00000000000000000000e+03
cascade_weight_multiplier=4.00000005960464477539e-01
cascade_activation_functions_count=10
cascade_activation_functions=3 5 7 8 10 11 14 15 16 17 
cascade_activation_steepnesses_count=4
cascade_activation_steepnesses=2.50000000000000000000e-01 5.00000000000000000000e-01 7.50000000000000000000e-01 1.00000000000000000000e+00 
layer_sizes=3 10 10 10 2 
scale_included=0
neurons (num_inputs, activation_function, activation_steepness)=(0, 0, 0.00000000000000000000e+00) (0, 0, 0.00000000000000000000e+00) (0, 0, 0.00000000000000000000e+00) (3, 3, 5.00000000000000000000e-01) (3, 3, 5.00000000000000000000e-01) (3, 3, 5.00000000000000000000e-01) (3, 3, 5.00000000000000000000e-01) (3, 3, 5.00000000000000000000e-01) (3, 3, 5.00000000000000000000e-01) (3, 3, 5.00000000000000000000e-01) (3, 3, 5.00000000000000000000e-01) (3, 3, 5.00000000000000000000e-01) (0, 3, 0.00000000000000000000e+00) (10, 3, 5.00000000000000000000e-01) (10, 3, 5.00000000000000000000e-01) (10, 3, 5.00000000000000000000e-01) (10, 3, 5.00000000000000000000e-01) (10, 3, 5.00000000000000000000e-01) (10, 3, 5.00000000000000000000e-01) (10, 3, 5.00000000000000000000e-01) (10, 3, 5.00000000000000000000e-01) (10, 3, 5.00000000000000000000e-01) (0, 3, 0.00000000000000000000e+00) (10, 3, 5.00000000000000000000e-01) (10, 3, 5.00000000000000000000e-01) (10, 3, 5.00000000000000000000e-01) (10, 3, 5.00000000000000000000e-01) (10, 3, 5.00000000000000000000e-01) (10, 3, 5.00000000000000000000e-01) (10, 3, 5.00000000000000000000e-01) (10, 3, 5.00000000000000000000e-01) (10, 3, 5.00000000000000000000e-01) (0, 3, 0.00000000000000000000e+00) (10, 5, 5.00000000000000000000e-01) (0, 5, 0.00000000000000000000e+00) 
connections (connected_to_neuron, weight)=(0, 1.53717285156250000000e+02) (1, -3.49956451416015625000e+02) (2, 8.66448822021484375000e+01) (0, -1.40263049316406250000e+03) (1, 1.46463854980468750000e+03) (2, 7.58686637878417968750e+00) (0, 1.39016149902343750000e+03) (1, -1.46746826171875000000e+03) (2, 1.40122957229614257812e+01) (0, 1.85065032958984375000e+02) (1, 1.49999987792968750000e+03) (2, 3.41802551269531250000e+02) (0, 6.62583618164062500000e+02) (1, 1.49999987792968750000e+03) (2, 9.66690124511718750000e+02) (0, 1.30773693847656250000e+03) (1, -8.11810363769531250000e+02) (2, -1.60275100708007812500e+02) (0, 8.61248474121093750000e+02) (1, -1.49092407226562500000e+03) (2, -8.92941101074218750000e+02) (0, 1.18403747558593750000e+03) (1, -1.23381909179687500000e+03) (2, -3.56815266609191894531e+00) (0, -6.28724670410156250000e+02) (1, 7.87879821777343750000e+02) (2, 8.07895202636718750000e+01) (3, -1.49977941894531250000e+03) (4, -1.49995349121093750000e+03) (5, 1.29819873046875000000e+03) (6, -9.45314331054687500000e+02) (7, 7.84586486816406250000e+02) (8, -1.48871508789062500000e+03) (9, 1.50000000000000000000e+03) (10, 1.38138647460937500000e+03) (11, -1.44854125976562500000e+03) (12, -8.12540954589843750000e+02) (3, 1.50000000000000000000e+03) (4, -1.20637719726562500000e+03) (5, -1.76962677001953125000e+02) (6, -1.12269360351562500000e+03) (7, 1.13875878906250000000e+03) (8, 2.50232955932617187500e+02) (9, 1.50000000000000000000e+03) (10, -3.83833953857421875000e+02) (11, 1.42021374511718750000e+03) (12, -2.31764831542968750000e+02) (3, 1.50000000000000000000e+03) (4, -3.88856048583984375000e+02) (5, -2.41872726440429687500e+02) (6, -3.17143096923828125000e+02) (7, -2.85389617919921875000e+02) (8, 6.36314270019531250000e+02) (9, 1.50000000000000000000e+03) (10, -1.50206924438476562500e+02) (11, 1.11789192199707031250e+02) (12, 2.45156021118164062500e+02) (3, 1.50000000000000000000e+03) (4, -1.38661254882812500000e+03) (5, -8.89970397949218750000e+02) (6, 1.97196380615234375000e+02) (7, 4.70691680908203125000e+02) (8, 1.50000000000000000000e+03) (9, 1.50000000000000000000e+03) (10, -9.51390441894531250000e+02) (11, 2.48600112915039062500e+02) (12, 4.70691680908203125000e+02) (3, 7.01283508300781250000e+02) (4, 7.91547058105468750000e+02) (5, 3.92998931884765625000e+02) (6, -1.48755371093750000000e+03) (7, -1.00237237548828125000e+03) (8, 9.62535034179687500000e+02) (9, 1.50000000000000000000e+03) (10, 4.23572845458984375000e+02) (11, 7.23319702148437500000e+02) (12, 1.00360908508300781250e+01) (3, 1.50000000000000000000e+03) (4, 1.49997460937500000000e+03) (5, 1.42372875976562500000e+03) (6, -3.73964935302734375000e+02) (7, 3.41316299438476562500e+01) (8, 2.41015029907226562500e+02) (9, 1.50000000000000000000e+03) (10, 1.43700878906250000000e+03) (11, 2.89179504394531250000e+02) (12, 2.24089584350585937500e+01) (3, 1.50000000000000000000e+03) (4, -1.46172521972656250000e+03) (5, 1.44677331542968750000e+03) (6, 1.31357641601562500000e+03) (7, 1.44061791992187500000e+03) (8, 1.50000000000000000000e+03) (9, 1.50000000000000000000e+03) (10, 1.50000000000000000000e+03) (11, 9.62615234375000000000e+02) (12, 4.06894760131835937500e+01) (3, -1.49976379394531250000e+03) (4, -1.46890942382812500000e+03) (5, -1.06590979003906250000e+03) (6, 1.49980639648437500000e+03) (7, 1.49980639648437500000e+03) (8, 1.49975061035156250000e+03) (9, 1.50000000000000000000e+03) (10, -1.07502014160156250000e+03) (11, 1.49871203613281250000e+03) (12, 1.49980639648437500000e+03) (3, -1.49858532714843750000e+03) (4, 1.49999804687500000000e+03) (5, 1.49999951171875000000e+03) (6, 5.97822326660156250000e+02) (7, 5.97822326660156250000e+02) (8, -1.46685913085937500000e+03) (9, 1.50000000000000000000e+03) (10, 1.46870336914062500000e+03) (11, 1.50000000000000000000e+03) (12, 5.97822326660156250000e+02) (13, 1.50000000000000000000e+03) (14, 1.49244921875000000000e+03) (15, 1.45185546875000000000e+03) (16, 1.49829687500000000000e+03) (17, 1.49450659179687500000e+03) (18, 1.48713659667968750000e+03) (19, 1.19947662353515625000e+02) (20, 6.04780822753906250000e+02) (21, 1.46003540039062500000e+03) (22, 1.95816440582275390625e+01) (13, 1.50000000000000000000e+03) (14, 6.17701904296875000000e+02) (15, -9.66017822265625000000e+02) (16, -3.48580963134765625000e+02) (17, -6.94713134765625000000e+02) (18, 6.66588592529296875000e+01) (19, 4.23245925903320312500e+01) (20, -1.02349530029296875000e+03) (21, 1.50000000000000000000e+03) (22, 3.66458091735839843750e+01) (13, 1.50000000000000000000e+03) (14, 1.49715100097656250000e+03) (15, 1.45839379882812500000e+03) (16, 1.50000000000000000000e+03) (17, 1.50000000000000000000e+03) (18, 1.49328833007812500000e+03) (19, 8.96283264160156250000e+02) (20, 6.67513732910156250000e+02) (21, 1.46618713378906250000e+03) (22, 3.09758872985839843750e+01) (13, 1.50000000000000000000e+03) (14, 1.49319885253906250000e+03) (15, 1.45111437988281250000e+03) (16, 1.45044140625000000000e+03) (17, -1.44720190429687500000e+03) (18, 1.48638208007812500000e+03) (19, 6.48778772354125976562e+00) (20, 5.61116455078125000000e+02) (21, 1.45928088378906250000e+03) (22, 9.02386856079101562500e+00) (13, 1.50000000000000000000e+03) (14, 3.03769512176513671875e+01) (15, 2.71413238525390625000e+02) (16, 5.85293884277343750000e+02) (17, 5.67425476074218750000e+02) (18, -1.92607315063476562500e+02) (19, -2.47226047515869140625e+01) (20, -5.50782226562500000000e+02) (21, -4.50912811279296875000e+02) (22, -2.17342739105224609375e+01) (13, 1.50000000000000000000e+03) (14, -1.46828027343750000000e+03) (15, -7.64586425781250000000e+02) (16, -1.48103295898437500000e+03) (17, -1.44720190429687500000e+03) (18, 4.12267425537109375000e+02) (19, -1.54881881713867187500e+02) (20, -4.23493957519531250000e+02) (21, 1.45130004882812500000e+03) (22, -1.45370162963867187500e+02) (13, 1.50000000000000000000e+03) (14, 1.49715100097656250000e+03) (15, 1.45839379882812500000e+03) (16, 1.50000000000000000000e+03) (17, 1.50000000000000000000e+03) (18, 1.49328833007812500000e+03) (19, 3.45389480590820312500e+01) (20, 6.22393005371093750000e+02) (21, 1.46618713378906250000e+03) (22, 9.06129837036132812500e+01) (13, 1.50000000000000000000e+03) (14, -4.83874750137329101562e+00) (15, -7.67786682128906250000e+02) (16, -2.19704299926757812500e+02) (17, -1.44720166015625000000e+03) (18, -1.21949060058593750000e+03) (19, -1.84489774703979492188e+00) (20, 2.30209838867187500000e+02) (21, 1.92634797096252441406e+00) (22, -1.96837365627288818359e-01) (13, 1.50000000000000000000e+03) (14, 1.49695556640625000000e+03) (15, 1.45806347656250000000e+03) (16, 1.50000000000000000000e+03) (17, 1.50000000000000000000e+03) (18, 1.49310571289062500000e+03) (19, 3.18594398498535156250e+01) (20, 6.08752746582031250000e+02) (21, 1.46600451660156250000e+03) (22, 1.75084899902343750000e+02) (23, 2.83099357038736343384e-02) (24, 5.28477311134338378906e-01) (25, -2.65042483806610107422e-01) (26, 4.26494106650352478027e-02) (27, -2.05675172805786132812e+00) (28, 6.53922748565673828125e+00) (29, -1.32078573107719421387e-01) (30, 1.50000000000000000000e+03) (31, -5.27310296893119812012e-02) (32, 1.73141092061996459961e-01) 
